Language model created by QuickLM on Wed Dec 17 11:50:45 EST 2014
Copyright (c) 1996-2010 Carnegie Mellon University and Alexander I. Rudnicky

The model is in standard ARPA format, designed by Doug Paul while he was at MITRE.

The code that was used to produce this language model is available in Open Source.
Please visit http://www.speech.cs.cmu.edu/tools/ for more information

The (fixed) discount mass is 0.5. The backoffs are computed using the ratio method.
This model based on a corpus of 3 sentences and 6 words

\data\
ngram 1=6
ngram 2=7
ngram 3=5

\1-grams:
-0.8653 </s> -0.3010
-0.8653 <s> -0.2374
-1.3424 GENEVIEVE -0.2374
-1.0414 HI -0.2596
-1.3424 JARVIS -0.2374
-1.3424 TERMINATE -0.2374

\2-grams:
-0.4771 <s> HI 0.0000
-0.7782 <s> TERMINATE 0.0000
-0.3010 GENEVIEVE </s> -0.3010
-0.6021 HI GENEVIEVE 0.0000
-0.6021 HI JARVIS 0.0000
-0.3010 JARVIS </s> -0.3010
-0.3010 TERMINATE </s> -0.3010

\3-grams:
-0.6021 <s> HI GENEVIEVE
-0.6021 <s> HI JARVIS
-0.3010 <s> TERMINATE </s>
-0.3010 HI GENEVIEVE </s>
-0.3010 HI JARVIS </s>

\end\
